Language model created by QuickLM on Wed Apr 16 10:20:58 EDT 2014
Copyright (c) 1996-2010 Carnegie Mellon University and Alexander I. Rudnicky

The model is in standard ARPA format, designed by Doug Paul while he was at MITRE.

The code that was used to produce this language model is available in Open Source.
Please visit http://www.speech.cs.cmu.edu/tools/ for more information

The (fixed) discount mass is 0.5. The backoffs are computed using the ratio method.
This model based on a corpus of 4 sentences and 6 words

\data\
ngram 1=6
ngram 2=8
ngram 3=4

\1-grams:
-0.7782 </s> -0.3010
-0.7782 <s> -0.2218
-1.3802 CLOSE -0.2218
-1.3802 NAVIGATE -0.2218
-1.3802 NO -0.2218
-1.3802 OK -0.2218

\2-grams:
-0.9031 <s> CLOSE 0.0000
-0.9031 <s> NAVIGATE 0.0000
-0.9031 <s> NO 0.0000
-0.9031 <s> OK 0.0000
-0.3010 CLOSE </s> -0.3010
-0.3010 NAVIGATE </s> -0.3010
-0.3010 NO </s> -0.3010
-0.3010 OK </s> -0.3010

\3-grams:
-0.3010 <s> CLOSE </s>
-0.3010 <s> NAVIGATE </s>
-0.3010 <s> NO </s>
-0.3010 <s> OK </s>

\end\
